{"biases":[[[-0.7244919441761959],[-11.650212689073474],[17.826479096465892],[-5.3611795936869795]],[[7.48255828054417],[2.7431563930807585],[3.6136306284562325],[5.88318642890126],[0.04570325019883771],[2.9543340760381076],[-4.701275869492992]]],"weights":[[[-8.469226880464504,13.40264495327283,-9.786152544802487],[-10.759163713311104,10.184517683710554,17.280021287918938],[-11.399811965882739,4.2432550798563815,-12.239008346497641],[20.231921772263497,-9.058775192116961,-10.99256290671568]],[[13.775753717989412,-2.4978956118974747,-8.466890826937169,-2.9843508481656666],[-7.512985920127222,2.3305398752864153,8.278702996895122,-7.285079390756018],[-11.801447868281818,7.612117967691282,3.6394221581759036,8.363781252494388],[13.802157263067599,-8.378813005134768,-6.716032073062417,-2.506375211620851],[7.5866340394875635,-12.310666374596153,1.1949460750390377,-4.923945082357392],[-7.596089929393119,-10.103195860278943,2.9577198372126734,5.939274848469274],[10.756780089111206,0.8782575931836606,-2.2952412979314727,10.948852324043282]]]}